#ifndef WEIGHTS_H_INCLUDED
#define WEIGHTS_H_INCLUDED
static double weights[] = {
	-0.4622724964,
	-0.0890038295,
	0.0667133700,
	0.0576128879,
	0.1088129552,
	-1.4389972555,
	-0.1491209576,
	0.0730193357,
	0.0178110612,
	-0.1458037875,
	1.8634479939,
	0.0018804629,
	-0.0540974595,
	-0.0399506812,
	0.1981418736,
	0.6338866181,
	0.0880612412,
	-0.0660257887,
	-0.0579765166,
	-0.1084738875,
	-12.8676957972,
	0.0999453491,
	-0.0083529944,
	-0.0001661548,
	0.0693881561,
	-9.0078145787,
	-0.1641368375,
	0.0616105927,
	0.0333260186,
	-0.0024190680,
	-1.0600211601,
	-0.1489650357,
	0.0727415967,
	0.0178386873,
	-0.1524815473,
	-8.9677618963,
	0.2723440476,
	-0.0753937489,
	-0.0395217205,
	0.0495800610,
	11.3492169479,
	0.0038854221,
	-0.0031546407,
	0.0149546740,
	-0.0857112867,
	-0.7255921282,
	-0.0875778601,
	0.0656503663,
	0.0582068306,
	0.1083162497,
	1.1166109174,
	-0.0725906487,
	0.0886928940,
	0.1336752754,
	-0.0547781684,
	-14.3466190403,
	0.1141900012,
	0.0351990748,
	0.0563702221,
	-0.0027261554,
	19.0596926605,
	0.1220612071,
	-0.2001261260,
	-0.0538030963,
	-0.0566782093,
	-9.5779544250,
	-0.2584685855,
	0.0387148586,
	0.0339010517,
	0.0571091046,
	0.8437475721,
	0.0151959506,
	0.0940233046,
	0.1317832355,
	-0.0749291391,
	0.3551678331,
	0.0896157376,
	-0.0671320563,
	-0.0574270604,
	-0.1090521414,
	-4.1696475960,
	0.6856395502,
	-1.0725086656,
	1.6761647999,
	-0.6855809173,
	-3.1180515560,
	-1.4213603876,
	-1.0723844369,
	-2.7685381802,
	1.8295880670,
	0.6855343548,
	1.6525527188,
	-3.8755858648,
	2.8531485188,
	-1.7373711837,
	0.9666312238,
	-0.6856827349,
	-5.7225504794,
	-2.8100191677,
	-0.0865927239,
	0.6973276473,
	2.8100307538,
	0.6212547897,
	-0.1656925530,
	-0.0866081716,
	0.7004023383,
	1.5775179995,
	-2.8100405939,
	-1.5642879617,
	0.6677291150,
	1.1623237396,
	-0.2982060962,
	1.2456506139,
	2.8100081351,
	-6.5543817734,
	0.0319510147,
	3.3880318919,
	-2.4273905553,
	-0.0319576136,
	-2.6510964442,
	1.7907947265,
	3.3880085296,
	-1.0539817673,
	1.6584606395,
	0.0319672146,
	0.0766848301,
	0.7755539499,
	-0.7762133550,
	1.7495027813,
	0.0448763071,
	-0.0319419868,
	-0.7347155157,
	0.0849922703,
	-0.1917191467,
	0.3775441891,
	-0.0849895669,
	0.4260189097,
	-1.4549398800,
	-0.1917258467,
	1.6874218759,
	-0.6966670377,
	0.0849916653,
	-2.4218261586,
	-5.2029344401,
	-3.2478632439,
	3.9814620483,
	-2.5070628254,
	-0.0849904201,
	-11.4225292826,
	0.0319587084,
	-2.3837800546,
	2.4028743742,
	-0.0319623183,
	2.5849763434,
	4.5392074424,
	-2.3837845778,
	-4.3373159373,
	-2.6362953131,
	0.0319638570,
	1.3918125122,
	1.4308999846,
	-0.3637158173,
	3.3121105611,
	1.3599677789,
	-0.0319573227,
	-8.3956475347,
	0.9362403469,
	-1.8741207662,
	-6.5032323636,
	-0.9362739785,
	2.4246283731,
	-1.8818480402,
	-1.8741398487,
	2.4320469641,
	5.0160235171,
	0.9362959080,
	1.2154307469,
	0.6305360970,
	-1.6768196012,
	-1.9614828479,
	0.2787399756,
	-0.9362185194,
	-7.6574379746,
	1.5516370857,
	-0.0031411418,
	0.1884891736,
	-1.5516692312,
	0.4865727232,
	-0.0532268221,
	-0.0031553423,
	0.5375097190,
	-2.2237408557,
	1.5516832233,
	-2.7759535510,
	3.5650408109,
	5.3719487129,
	-3.1341295948,
	-4.3274516469,
	-1.5516228695,
	-13.4028122580,
	0.2119082634,
	-0.0003748425,
	5.2638546707,
	-0.2118998847,
	0.2221874805,
	-3.4878703036,
	-0.0003791735,
	3.7097686655,
	-5.6968040408,
	0.2118937985,
	4.0532512799,
	0.9157519636,
	-3.5854029898,
	-4.1804675724,
	3.8418224750,
	-0.2119145847,
};
#endif // WEIGHTS_H_INCLUDED
